digraph Tree {
node [shape=box, style="filled", color="black", fontname="helvetica"] ;
edge [fontname="helvetica"] ;
0 [label="x16 <= -0.056\ngini = 0.5\nsamples = 100.0%\nvalue = [0.494, 0.506]\nclass = B", fillcolor="#fbfdfe"] ;
1 [label="x7 <= 0.104\ngini = 0.442\nsamples = 53.7%\nvalue = [0.329, 0.671]\nclass = B", fillcolor="#9acdf2"] ;
0 -> 1 [labeldistance=2.5, labelangle=45, headlabel="True"] ;
2 [label="x18 <= 2.265\ngini = 0.5\nsamples = 28.4%\nvalue = [0.495, 0.505]\nclass = B", fillcolor="#fbfdfe"] ;
1 -> 2 ;
3 [label="gini = 0.489\nsamples = 22.5%\nvalue = [0.425, 0.575]\nclass = B", fillcolor="#cbe5f8"] ;
2 -> 3 ;
4 [label="gini = 0.344\nsamples = 6.0%\nvalue = [0.779, 0.221]\nclass = A", fillcolor="#eca571"] ;
2 -> 4 ;
5 [label="x19 <= 1.235\ngini = 0.245\nsamples = 25.3%\nvalue = [0.143, 0.857]\nclass = B", fillcolor="#5aade9"] ;
1 -> 5 ;
6 [label="gini = 0.183\nsamples = 17.9%\nvalue = [0.102, 0.898]\nclass = B", fillcolor="#4fa8e8"] ;
5 -> 6 ;
7 [label="gini = 0.371\nsamples = 7.4%\nvalue = [0.246, 0.754]\nclass = B", fillcolor="#7abded"] ;
5 -> 7 ;
8 [label="x5 <= 4.52\ngini = 0.428\nsamples = 46.3%\nvalue = [0.69, 0.31]\nclass = A", fillcolor="#f1ba92"] ;
0 -> 8 [labeldistance=2.5, labelangle=-45, headlabel="False"] ;
9 [label="x1 <= 0.588\ngini = 0.418\nsamples = 45.0%\nvalue = [0.703, 0.297]\nclass = A", fillcolor="#f0b68d"] ;
8 -> 9 ;
10 [label="gini = 0.277\nsamples = 29.0%\nvalue = [0.834, 0.166]\nclass = A", fillcolor="#ea9a60"] ;
9 -> 10 ;
11 [label="gini = 0.499\nsamples = 16.0%\nvalue = [0.476, 0.524]\nclass = B", fillcolor="#edf6fd"] ;
9 -> 11 ;
12 [label="x14 <= 0.823\ngini = 0.444\nsamples = 1.3%\nvalue = [0.333, 0.667]\nclass = B", fillcolor="#9ccef2"] ;
8 -> 12 ;
13 [label="gini = 0.34\nsamples = 1.1%\nvalue = [0.217, 0.783]\nclass = B", fillcolor="#70b8ec"] ;
12 -> 13 ;
14 [label="gini = 0.0\nsamples = 0.2%\nvalue = [1.0, 0.0]\nclass = A", fillcolor="#e58139"] ;
12 -> 14 ;
}